<?xml version="1.0"?>
<opencv_storage>
<stage0>
  <maxWeakCount>5</maxWeakCount>
  <stageThreshold>-1.5307239294052124e+00</stageThreshold>
  <weakClassifiers>
    <_>
      <internalNodes>
        0 -1 2418489 1.8714503385126591e-03</internalNodes>
      <leafValues>
        -8.4972172975540161e-01 7.2727274894714355e-01</leafValues></_>
    <_>
      <internalNodes>
        0 -1 1685194 1.6123150999192148e-04</internalNodes>
      <leafValues>
        -5.2358627319335938e-01 4.4360768795013428e-01</leafValues></_>
    <_>
      <internalNodes>
        0 -1 2848892 -7.6733618974685669e-02</internalNodes>
      <leafValues>
        -7.4286830425262451e-01 2.3445889353752136e-01</leafValues></_>
    <_>
      <internalNodes>
        0 -1 160234 1.7349466681480408e-02</internalNodes>
      <leafValues>
        1.2581232190132141e-01 -9.4887226819992065e-01</leafValues></_>
    <_>
      <internalNodes>
        0 -1 2040796 -4.4587581214727834e-05</internalNodes>
      <leafValues>
        4.5963999629020691e-01 -3.3935490250587463e-01</leafValues></_></weakClassifiers></stage0>
</opencv_storage>
