<?xml version="1.0"?>
<opencv_storage>
<stage4>
  <maxWeakCount>6</maxWeakCount>
  <stageThreshold>-1.4311536550521851e+00</stageThreshold>
  <weakClassifiers>
    <_>
      <internalNodes>
        0 -1 2618068 8.9785037562251091e-04</internalNodes>
      <leafValues>
        -8.3639705181121826e-01 8.3333331346511841e-01</leafValues></_>
    <_>
      <internalNodes>
        0 -1 1821381 3.3092853846028447e-04</internalNodes>
      <leafValues>
        -4.7259363532066345e-01 3.7032291293144226e-01</leafValues></_>
    <_>
      <internalNodes>
        0 -1 2847725 -6.2034360598772764e-04</internalNodes>
      <leafValues>
        -7.5340896844863892e-01 1.5406686067581177e-01</leafValues></_>
    <_>
      <internalNodes>
        0 -1 2795272 7.8636955004185438e-04</internalNodes>
      <leafValues>
        1.5605874359607697e-01 -6.3699299097061157e-01</leafValues></_>
    <_>
      <internalNodes>
        0 -1 3013570 4.2017176747322083e-04</internalNodes>
      <leafValues>
        -4.1163313388824463e-01 2.8179982304573059e-01</leafValues></_>
    <_>
      <internalNodes>
        0 -1 1782124 1.2348450254648924e-03</internalNodes>
      <leafValues>
        1.9338735938072205e-01 -6.1130529642105103e-01</leafValues></_></weakClassifiers></stage4>
</opencv_storage>
