<?xml version="1.0"?>
<opencv_storage>
<stage1>
  <maxWeakCount>7</maxWeakCount>
  <stageThreshold>-1.4857933521270752e+00</stageThreshold>
  <weakClassifiers>
    <_>
      <internalNodes>
        0 -1 2248383 -9.2265818966552615e-04</internalNodes>
      <leafValues>
        8.8235294818878174e-01 -8.4487533569335938e-01</leafValues></_>
    <_>
      <internalNodes>
        0 -1 1898093 -2.5428194203414023e-04</internalNodes>
      <leafValues>
        6.1499083042144775e-01 -4.9936926364898682e-01</leafValues></_>
    <_>
      <internalNodes>
        0 -1 2927316 3.8578014820814133e-02</internalNodes>
      <leafValues>
        1.6281598806381226e-01 -9.1197961568832397e-01</leafValues></_>
    <_>
      <internalNodes>
        0 -1 2810996 -2.7242489159107208e-03</internalNodes>
      <leafValues>
        7.5661873817443848e-01 -2.1996976435184479e-01</leafValues></_>
    <_>
      <internalNodes>
        0 -1 2235604 2.5852886959910393e-02</internalNodes>
      <leafValues>
        1.7980454862117767e-01 -8.3548730611801147e-01</leafValues></_>
    <_>
      <internalNodes>
        0 -1 1368182 -3.5104304552078247e-03</internalNodes>
      <leafValues>
        -7.9200035333633423e-01 1.8454141914844513e-01</leafValues></_>
    <_>
      <internalNodes>
        0 -1 2557468 1.0153214680030942e-04</internalNodes>
      <leafValues>
        -2.9165530204772949e-01 5.2780079841613770e-01</leafValues></_></weakClassifiers></stage1>
</opencv_storage>
